{
  "inputSize": 2,
  "layers": [
    {
      "neurons": [
        {
          "output": 0.7925197223492471,
          "delta": -0.000019245238285954278,
          "weights": [
            -0.09372766942706014,
            2.0929988595873805
          ],
          "bias": -0.4918176483376572
        },
        {
          "output": 0.243167497131984,
          "delta": 0.000028797483164276884,
          "weights": [
            -0.6198073622748619,
            -2.527562271249879
          ],
          "bias": 1.6781215439290003
        },
        {
          "output": 0.48734893767777504,
          "delta": -1.5127962499488652e-7,
          "weights": [
            -0.6820568748279079,
            0.26094425622125966
          ],
          "bias": 0.2707633879513012
        },
        {
          "output": 0.8035670006680881,
          "delta": -0.000002500734056093019,
          "weights": [
            0.4661680687770607,
            0.2920692296809066
          ],
          "bias": 0.7600527916434601
        },
        {
          "output": 0.7192230443723879,
          "delta": -0.000022512219057413977,
          "weights": [
            1.2434420568303528,
            1.598177477618969
          ],
          "bias": -1.5367333634166063
        },
        {
          "output": 0.7532926507322413,
          "delta": -0.000017273868406278855,
          "weights": [
            0.2594252806050035,
            1.8155790690663152
          ],
          "bias": -0.7523606224178141
        },
        {
          "output": 0.20231172581838536,
          "delta": 0.00001732651161391663,
          "weights": [
            -0.7877133471617808,
            -1.645805306247489
          ],
          "bias": 0.7751232772279121
        },
        {
          "output": 0.25572187387416695,
          "delta": 0.000025758314066890922,
          "weights": [
            -0.3550562945609684,
            -2.3685163891539287
          ],
          "bias": 1.3830082130444057
        }
      ]
    },
    {
      "neurons": [
        {
          "output": 0.7838995505686926,
          "delta": -0.000013852208492577358,
          "weights": [
            1.6680263967467897,
            -1.364017985032717,
            0.23442605042942283,
            -0.03673207476549899,
            -0.0646330822301073,
            1.2015059484742412,
            -0.7614584686706398,
            0.1295131883819301
          ],
          "bias": -0.5241194131485504
        },
        {
          "output": 0.11626462059270512,
          "delta": 3.25160016780105e-7,
          "weights": [
            -0.9913756020254852,
            -0.5089640401696929,
            -0.9635534682262223,
            0.7314716331329862,
            0.23225033350243246,
            -0.6391270827652843,
            -0.2899886264609094,
            -0.8839046881037107
          ],
          "bias": -0.637928541631988
        },
        {
          "output": 0.7416500535863711,
          "delta": -0.000015305718991197864,
          "weights": [
            0.982748130819156,
            -1.3050965900208855,
            -0.6120139451560499,
            -0.4094919420619642,
            1.7295397982890643,
            1.224316989655336,
            -0.013728363957121284,
            -1.6342604508874676
          ],
          "bias": -0.5251095037202562
        },
        {
          "output": 0.7454798553799102,
          "delta": -0.000016348480906930543,
          "weights": [
            0.5467979875151374,
            -1.4281925574426726,
            -0.05040406601132278,
            -0.17896306288686237,
            1.7163104634017,
            0.7530855026921327,
            -1.413351853927158,
            -1.3880751278738275
          ],
          "bias": -0.0038418598785218833
        },
        {
          "output": 0.1651751427178915,
          "delta": 0.000013002205018241796,
          "weights": [
            -0.9031258349498049,
            1.8678486443897306,
            -0.41681243300376164,
            -1.06890369060455,
            -0.6979659788985721,
            -0.1415225114271963,
            0.6754640963575215,
            1.1845905575563795
          ],
          "bias": -0.12758072418653216
        },
        {
          "output": 0.26324985276319274,
          "delta": 0.000012565442476926744,
          "weights": [
            -1.0608270884187383,
            0.7224555440597367,
            -0.15210011782569519,
            -0.8366643237039817,
            -1.0764560041818902,
            -0.9487482683855828,
            1.118138910050362,
            1.6535732026345846
          ],
          "bias": 1.2221747372571719
        },
        {
          "output": 0.35345229597580685,
          "delta": 0.000007670783196547434,
          "weights": [
            -1.222609486077389,
            2.316228421708483,
            -0.09923784495007815,
            0.5084760766174105,
            -0.9393921819223944,
            -1.0709649294120136,
            1.7257740636801284,
            1.4937286303124444
          ],
          "bias": 0.1928401716097664
        },
        {
          "output": 0.7431644556224467,
          "delta": -0.000009003400346190019,
          "weights": [
            0.24748368181334537,
            -0.23908428613505453,
            -0.09507921972355998,
            0.3832080515331808,
            0.7551961769813684,
            0.21589303405441623,
            -0.6324369310378272,
            -1.128689989798399
          ],
          "bias": 0.3736816228970332
        }
      ]
    },
    {
      "neurons": [
        {
          "output": 0.8001858266248675,
          "delta": -0.000008333685067689385,
          "weights": [
            0.5977104872209607,
            -0.7734880865657628,
            -0.2772220823997577,
            1.1789811522849685,
            -0.6025925638983458,
            -0.37669429056058507,
            -0.1539530087066345,
            1.1791726672648317
          ],
          "bias": -0.2876705672391615
        },
        {
          "output": 0.14179399279813962,
          "delta": -0.0000014180555841908256,
          "weights": [
            -0.3754067404020068,
            0.8012930280617135,
            -0.4072959491419078,
            -1.096565058462014,
            0.8166094221303214,
            0.9984895014178407,
            -0.2875684014829903,
            -0.2676158550567326
          ],
          "bias": -0.5770230431989373
        },
        {
          "output": 0.7912600435716414,
          "delta": -0.0000055159419280675674,
          "weights": [
            0.7613834061663631,
            0.38753134571268144,
            1.23354277594777,
            2.4043842015535986,
            -0.8369247518078468,
            -1.7524267034104515,
            -2.9296229784997383,
            0.26968735803618565
          ],
          "bias": -0.5820187840500562
        },
        {
          "output": 0.03019896461512651,
          "delta": 0.000013842577683547034,
          "weights": [
            -1.587908250024497,
            0.4529840263789969,
            -1.5039900779281326,
            -1.6911456433698773,
            1.732456227465883,
            1.4670001104796802,
            0.16727846762712487,
            -1.029688859608877
          ],
          "bias": 0.13271752098946377
        },
        {
          "output": 0.8155605260983497,
          "delta": -0.000004027144274912336,
          "weights": [
            0.5554058229096648,
            -0.42591028148894955,
            0.7236919667833127,
            0.39631641640481047,
            0.7030158788514242,
            -0.04010747117187743,
            1.0228300140603084,
            0.31643014341004494
          ],
          "bias": -0.4337255987837409
        },
        {
          "output": 0.07377191890163527,
          "delta": 5.613532992214589e-7,
          "weights": [
            -0.9886482936652186,
            -0.2898388791004095,
            -0.5035113165185505,
            0.20755831849346004,
            0.1401043213020889,
            -0.2814939150859818,
            0.10977305061431483,
            -0.9821971529479415
          ],
          "bias": -0.7606487895374862
        },
        {
          "output": 0.24209290690607468,
          "delta": 0.0000012823564643939085,
          "weights": [
            0.2075984469267212,
            -0.21690155732955796,
            -2.069991784344679,
            -0.9091559876952688,
            0.9235750860245435,
            1.4494967617480736,
            2.5527722054067885,
            -0.3701753367413806
          ],
          "bias": -0.22710410455052868
        },
        {
          "output": 0.9731595631196412,
          "delta": -0.00001677611216536155,
          "weights": [
            1.5028639654357692,
            0.4184985706497722,
            1.9015156446983696,
            1.1609220633065247,
            -1.4481276710821653,
            -1.0310589349569514,
            -1.2263330257412013,
            0.608779557603338
          ],
          "bias": 0.5798320167996135
        }
      ]
    },
    {
      "neurons": [
        {
          "output": 0.11052196396124146,
          "delta": -0.000009658518813363591,
          "weights": [
            -0.043430387556848186,
            0.791513327775665,
            -3.026791376879041,
            2.4232568805197214,
            0.3418729082591786,
            -0.2434462929796678,
            2.885140095271833,
            -0.6717073471528736
          ],
          "bias": -0.1467528435339544
        },
        {
          "output": 0.04800922007332444,
          "delta": 0.000025815841199466633,
          "weights": [
            0.12023446585267376,
            -0.12868483833584352,
            -2.256406484974636,
            1.8612482259384786,
            -0.5793363376884585,
            0.011125354379024963,
            1.1167045060744853,
            -1.6390100521141404
          ],
          "bias": 0.46040624926927187
        },
        {
          "output": 0.012717257012779783,
          "delta": 0.00001571150731626992,
          "weights": [
            -1.009771923759764,
            -0.40521234551270463,
            -1.6891658852775404,
            2.0452376596043855,
            0.5128160453010349,
            -0.04687906331886652,
            1.1997832267940336,
            -2.0685832486977285
          ],
          "bias": -0.903900907962779
        },
        {
          "output": 0.8749252141558348,
          "delta": -0.0000023592793466434577,
          "weights": [
            -0.42532855823236876,
            -1.2578366946400137,
            1.922787370685793,
            -0.1565107207479948,
            0.3939598399429333,
            0.3518508259710842,
            -0.8254943765777842,
            1.720764076388926
          ],
          "bias": -0.8747627062722703
        },
        {
          "output": 0.9953022604054832,
          "delta": -0.000012555869077573598,
          "weights": [
            1.8697231135150238,
            -1.087335969535371,
            1.0074514831253827,
            -2.27274648480712,
            0.34291073748645057,
            -0.9673098836335746,
            -1.1210046689635913,
            3.1189224160927487
          ],
          "bias": 0.31336922229759245
        },
        {
          "output": 0.13915308920145186,
          "delta": -0.0000104685775987701,
          "weights": [
            0.09944998664256112,
            0.5847163902063063,
            -2.5180750052078547,
            0.823923695411572,
            1.1660362596592275,
            0.69349161810316,
            2.63730675609954,
            -1.722137084388326
          ],
          "bias": 0.01804831889486806
        }
      ]
    },
    {
      "neurons": [
        {
          "output": 0.9733424608146182,
          "delta": 0.000010677624200611724,
          "weights": [
            -4.618277690784019,
            -3.2938881973750056,
            -0.6423963477008479,
            2.0630598358544434,
            2.8032434781632,
            -3.7147431857030857
          ],
          "bias": 0.1962119714562199
        },
        {
          "output": 0.045098155934963434,
          "delta": 0.000055807482979340796,
          "weights": [
            -0.37067972958587736,
            1.8137274024221695,
            1.584361112029688,
            -1.2326728508282878,
            -1.659488192586626,
            0.3503105991272343
          ],
          "bias": -0.43758120542204443
        },
        {
          "output": 0.8476837196952841,
          "delta": 0.00003959794255138551,
          "weights": [
            -2.4180327916127933,
            -0.4078309136105197,
            -1.2193780156436156,
            2.084172233425948,
            0.5544315073456921,
            -1.8482162913774152
          ],
          "bias": -0.09925579926816362
        },
        {
          "output": 0.9998892872975738,
          "delta": -0.00002371298789002888,
          "weights": [
            -2.594269716392739,
            -2.1690180547459996,
            -3.175775917238097,
            1.6350090047885897,
            5.490403412220219,
            -0.3156256277617325
          ],
          "bias": 2.688503818143724
        },
        {
          "output": 0.16609381660036063,
          "delta": 0.000009971878664574027,
          "weights": [
            -1.0409554126602625,
            0.3031539906792673,
            0.4862864841913705,
            -0.6625613214856662,
            -0.0238414688641604,
            -0.9537780381498749
          ],
          "bias": -0.7831158630334877
        }
      ]
    },
    {
      "neurons": [
        {
          "output": 7.4562539790422795,
          "delta": 0.00013949248418169586,
          "weights": [
            7.918303537301198,
            -2.175779583966957,
            2.569169975336809,
            3.233709981518405,
            0.8163719939070131
          ],
          "bias": -5.6996332946778105
        },
        {
          "output": -1.514288568515735,
          "delta": -0.0002292998826257664,
          "weights": [
            -6.336428864998108,
            -1.8886633633456413,
            -2.4208264981313907,
            6.368110633431531,
            0.0779508763644821
          ],
          "bias": 0.41014438000336967
        },
        {
          "output": -7.65076240976557,
          "delta": 0.00008980739844425906,
          "weights": [
            -3.088857885054751,
            2.5963715965770677,
            -1.3880855502131064,
            -9.108846530151089,
            0.7371806146153995
          ],
          "bias": 5.400716999843115
        }
      ]
    }
  ],
  "learningRate": 0.05
}