{
  "inputSize": 2,
  "layers": [
    {
      "neurons": [
        {
          "output": 0.174461320830889,
          "delta": -0.000003857695331001117,
          "weights": [
            -2.34093726063153,
            -5.4511539312829855
          ],
          "bias": 5.337094137661268
        },
        {
          "output": 0.973030090001206,
          "delta": 0.00005348903928272389,
          "weights": [
            1.857362258643111,
            5.733551829971053
          ],
          "bias": -3.166700030387692
        },
        {
          "output": 0.1675542889376122,
          "delta": -0.00002569852321412791,
          "weights": [
            -1.1535202682779448,
            -1.1220230749741977
          ],
          "bias": 0.36627285292614564
        }
      ]
    },
    {
      "neurons": [
        {
          "output": 0.014433657202778678,
          "delta": -0.0000621240767635756,
          "weights": [
            1.9404374767034447,
            -4.486211878569401,
            0.987871509895113
          ],
          "bias": -0.36248790377714196
        },
        {
          "output": 0.9980688915201863,
          "delta": 0.000051238924256153355,
          "weights": [
            -3.605246861323286,
            6.127066111754175,
            -0.8796880763636973
          ],
          "bias": 1.062280072896773
        },
        {
          "output": 0.04839589326835336,
          "delta": 2.281589027428813e-9,
          "weights": [
            9.167359665675402,
            -6.506908768846813,
            2.0735754665826946
          ],
          "bias": 1.405897752582071
        },
        {
          "output": 0.010072587596270152,
          "delta": -0.00006650498073280432,
          "weights": [
            2.7310085477609958,
            -4.612576506676196,
            -0.04130721099778333
          ],
          "bias": -0.5691724096613522
        }
      ]
    },
    {
      "neurons": [
        {
          "output": 9.159801663571248,
          "delta": 3.4447500303659057e-10,
          "weights": [
            -2.665450438576502,
            5.943467888367079,
            -11.713065166128045,
            -2.4212955196935737
          ],
          "bias": 3.8575364172080753
        },
        {
          "output": 0.7878005965549493,
          "delta": 0.00007620905075728999,
          "weights": [
            -3.014819593936621,
            2.3867847856798203,
            6.8471524920494495,
            -2.412500623880997
          ],
          "bias": -1.8579341135759195
        },
        {
          "output": -9.306982389999677,
          "delta": -0.0000762093952323406,
          "weights": [
            3.766356152747145,
            -8.112936583339835,
            4.613115264985715,
            4.883901613951345
          ],
          "bias": -1.5365244217213996
        }
      ]
    }
  ],
  "learningRate": 0.05
}